digraph Tree {
node [shape=box, style="filled, rounded", color="black", fontname="helvetica"] ;
edge [fontname="helvetica"] ;
0 [label="Perfil <= 3.5\ngini = 0.469\nsamples = 365\nvalue = [137, 228]\nclass = malo", fillcolor="#b0d8f5"] ;
1 [label="Plazo <= 42.0\ngini = 0.443\nsamples = 139\nvalue = [93.0, 46.0]\nclass = bueno", fillcolor="#f2bf9b"] ;
0 -> 1 [labeldistance=2.5, labelangle=45, headlabel="True"] ;
2 [label="ingresos en dolares <= 222.286\ngini = 0.36\nsamples = 85\nvalue = [65, 20]\nclass = bueno", fillcolor="#eda876"] ;
1 -> 2 ;
3 [label="gini = 0.0\nsamples = 1\nvalue = [0, 1]\nclass = malo", fillcolor="#399de5"] ;
2 -> 3 ;
4 [label="Zona geografica <= 18.5\ngini = 0.35\nsamples = 84\nvalue = [65, 19]\nclass = bueno", fillcolor="#eda673"] ;
2 -> 4 ;
5 [label="Zona geografica <= 4.5\ngini = 0.332\nsamples = 81\nvalue = [64, 17]\nclass = bueno", fillcolor="#eca26e"] ;
4 -> 5 ;
6 [label="Edad <= 60.5\ngini = 0.411\nsamples = 45\nvalue = [32.0, 13.0]\nclass = bueno", fillcolor="#f0b489"] ;
5 -> 6 ;
7 [label="Destino <= 14.5\ngini = 0.381\nsamples = 43\nvalue = [32, 11]\nclass = bueno", fillcolor="#eeac7d"] ;
6 -> 7 ;
8 [label="Edad <= 29.5\ngini = 0.307\nsamples = 37\nvalue = [30, 7]\nclass = bueno", fillcolor="#eb9e67"] ;
7 -> 8 ;
9 [label="gini = 0.0\nsamples = 1\nvalue = [0, 1]\nclass = malo", fillcolor="#399de5"] ;
8 -> 9 ;
10 [label="Plazo <= 30.0\ngini = 0.278\nsamples = 36\nvalue = [30, 6]\nclass = bueno", fillcolor="#ea9a61"] ;
8 -> 10 ;
11 [label="gini = 0.0\nsamples = 12\nvalue = [12, 0]\nclass = bueno", fillcolor="#e58139"] ;
10 -> 11 ;
12 [label="ingresos en dolares <= 912.643\ngini = 0.375\nsamples = 24\nvalue = [18, 6]\nclass = bueno", fillcolor="#eeab7b"] ;
10 -> 12 ;
13 [label="Edad <= 45.5\ngini = 0.278\nsamples = 18\nvalue = [15, 3]\nclass = bueno", fillcolor="#ea9a61"] ;
12 -> 13 ;
14 [label="Edad <= 44.5\ngini = 0.42\nsamples = 10\nvalue = [7, 3]\nclass = bueno", fillcolor="#f0b78e"] ;
13 -> 14 ;
15 [label="Perfil <= 0.5\ngini = 0.346\nsamples = 9\nvalue = [7, 2]\nclass = bueno", fillcolor="#eca572"] ;
14 -> 15 ;
16 [label="gini = 0.0\nsamples = 1\nvalue = [0, 1]\nclass = malo", fillcolor="#399de5"] ;
15 -> 16 ;
17 [label="Edad <= 41.5\ngini = 0.219\nsamples = 8\nvalue = [7, 1]\nclass = bueno", fillcolor="#e99355"] ;
15 -> 17 ;
18 [label="Perfil <= 2.5\ngini = 0.375\nsamples = 4\nvalue = [3, 1]\nclass = bueno", fillcolor="#eeab7b"] ;
17 -> 18 ;
19 [label="gini = 0.0\nsamples = 2\nvalue = [2, 0]\nclass = bueno", fillcolor="#e58139"] ;
18 -> 19 ;
20 [label="ingresos en dolares <= 664.105\ngini = 0.5\nsamples = 2\nvalue = [1, 1]\nclass = bueno", fillcolor="#ffffff"] ;
18 -> 20 ;
21 [label="gini = 0.0\nsamples = 1\nvalue = [1, 0]\nclass = bueno", fillcolor="#e58139"] ;
20 -> 21 ;
22 [label="gini = 0.0\nsamples = 1\nvalue = [0, 1]\nclass = malo", fillcolor="#399de5"] ;
20 -> 22 ;
23 [label="gini = 0.0\nsamples = 4\nvalue = [4, 0]\nclass = bueno", fillcolor="#e58139"] ;
17 -> 23 ;
24 [label="gini = 0.0\nsamples = 1\nvalue = [0, 1]\nclass = malo", fillcolor="#399de5"] ;
14 -> 24 ;
25 [label="gini = 0.0\nsamples = 8\nvalue = [8, 0]\nclass = bueno", fillcolor="#e58139"] ;
13 -> 25 ;
26 [label="ingresos en dolares <= 1111.695\ngini = 0.5\nsamples = 6\nvalue = [3, 3]\nclass = bueno", fillcolor="#ffffff"] ;
12 -> 26 ;
27 [label="gini = 0.0\nsamples = 3\nvalue = [0, 3]\nclass = malo", fillcolor="#399de5"] ;
26 -> 27 ;
28 [label="gini = 0.0\nsamples = 3\nvalue = [3, 0]\nclass = bueno", fillcolor="#e58139"] ;
26 -> 28 ;
29 [label="ingresos en dolares <= 404.194\ngini = 0.444\nsamples = 6\nvalue = [2, 4]\nclass = malo", fillcolor="#9ccef2"] ;
7 -> 29 ;
30 [label="gini = 0.0\nsamples = 2\nvalue = [2, 0]\nclass = bueno", fillcolor="#e58139"] ;
29 -> 30 ;
31 [label="gini = 0.0\nsamples = 4\nvalue = [0, 4]\nclass = malo", fillcolor="#399de5"] ;
29 -> 31 ;
32 [label="gini = 0.0\nsamples = 2\nvalue = [0, 2]\nclass = malo", fillcolor="#399de5"] ;
6 -> 32 ;
33 [label="ingresos en dolares <= 1467.13\ngini = 0.198\nsamples = 36\nvalue = [32, 4]\nclass = bueno", fillcolor="#e89152"] ;
5 -> 33 ;
34 [label="ingresos en dolares <= 472.951\ngini = 0.117\nsamples = 32\nvalue = [30, 2]\nclass = bueno", fillcolor="#e78946"] ;
33 -> 34 ;
35 [label="ingresos en dolares <= 464.644\ngini = 0.32\nsamples = 10\nvalue = [8, 2]\nclass = bueno", fillcolor="#eca06a"] ;
34 -> 35 ;
36 [label="Zona geografica <= 13.0\ngini = 0.198\nsamples = 9\nvalue = [8, 1]\nclass = bueno", fillcolor="#e89152"] ;
35 -> 36 ;
37 [label="gini = 0.0\nsamples = 5\nvalue = [5, 0]\nclass = bueno", fillcolor="#e58139"] ;
36 -> 37 ;
38 [label="Perfil <= 2.5\ngini = 0.375\nsamples = 4\nvalue = [3, 1]\nclass = bueno", fillcolor="#eeab7b"] ;
36 -> 38 ;
39 [label="gini = 0.0\nsamples = 1\nvalue = [0, 1]\nclass = malo", fillcolor="#399de5"] ;
38 -> 39 ;
40 [label="gini = 0.0\nsamples = 3\nvalue = [3, 0]\nclass = bueno", fillcolor="#e58139"] ;
38 -> 40 ;
41 [label="gini = 0.0\nsamples = 1\nvalue = [0, 1]\nclass = malo", fillcolor="#399de5"] ;
35 -> 41 ;
42 [label="gini = 0.0\nsamples = 22\nvalue = [22, 0]\nclass = bueno", fillcolor="#e58139"] ;
34 -> 42 ;
43 [label="Zona geografica <= 15.0\ngini = 0.5\nsamples = 4\nvalue = [2, 2]\nclass = bueno", fillcolor="#ffffff"] ;
33 -> 43 ;
44 [label="gini = 0.0\nsamples = 2\nvalue = [2, 0]\nclass = bueno", fillcolor="#e58139"] ;
43 -> 44 ;
45 [label="gini = 0.0\nsamples = 2\nvalue = [0, 2]\nclass = malo", fillcolor="#399de5"] ;
43 -> 45 ;
46 [label="ingresos en dolares <= 496.03\ngini = 0.444\nsamples = 3\nvalue = [1, 2]\nclass = malo", fillcolor="#9ccef2"] ;
4 -> 46 ;
47 [label="gini = 0.0\nsamples = 1\nvalue = [1, 0]\nclass = bueno", fillcolor="#e58139"] ;
46 -> 47 ;
48 [label="gini = 0.0\nsamples = 2\nvalue = [0, 2]\nclass = malo", fillcolor="#399de5"] ;
46 -> 48 ;
49 [label="ingresos en dolares <= 825.222\ngini = 0.499\nsamples = 54\nvalue = [28, 26]\nclass = bueno", fillcolor="#fdf6f1"] ;
1 -> 49 ;
50 [label="Edad <= 69.0\ngini = 0.365\nsamples = 25\nvalue = [19, 6]\nclass = bueno", fillcolor="#eda978"] ;
49 -> 50 ;
51 [label="ingresos en dolares <= 334.184\ngini = 0.33\nsamples = 24\nvalue = [19, 5]\nclass = bueno", fillcolor="#eca26d"] ;
50 -> 51 ;
52 [label="gini = 0.0\nsamples = 1\nvalue = [0, 1]\nclass = malo", fillcolor="#399de5"] ;
51 -> 52 ;
53 [label="Edad <= 47.5\ngini = 0.287\nsamples = 23\nvalue = [19, 4]\nclass = bueno", fillcolor="#ea9c63"] ;
51 -> 53 ;
54 [label="Edad <= 45.5\ngini = 0.426\nsamples = 13\nvalue = [9, 4]\nclass = bueno", fillcolor="#f1b991"] ;
53 -> 54 ;
55 [label="Destino <= 7.0\ngini = 0.298\nsamples = 11\nvalue = [9, 2]\nclass = bueno", fillcolor="#eb9d65"] ;
54 -> 55 ;
56 [label="Destino <= 3.0\ngini = 0.5\nsamples = 4\nvalue = [2, 2]\nclass = bueno", fillcolor="#ffffff"] ;
55 -> 56 ;
57 [label="gini = 0.0\nsamples = 1\nvalue = [1, 0]\nclass = bueno", fillcolor="#e58139"] ;
56 -> 57 ;
58 [label="ingresos en dolares <= 675.306\ngini = 0.444\nsamples = 3\nvalue = [1, 2]\nclass = malo", fillcolor="#9ccef2"] ;
56 -> 58 ;
59 [label="gini = 0.0\nsamples = 2\nvalue = [0, 2]\nclass = malo", fillcolor="#399de5"] ;
58 -> 59 ;
60 [label="gini = 0.0\nsamples = 1\nvalue = [1, 0]\nclass = bueno", fillcolor="#e58139"] ;
58 -> 60 ;
61 [label="gini = 0.0\nsamples = 7\nvalue = [7, 0]\nclass = bueno", fillcolor="#e58139"] ;
55 -> 61 ;
62 [label="gini = 0.0\nsamples = 2\nvalue = [0, 2]\nclass = malo", fillcolor="#399de5"] ;
54 -> 62 ;
63 [label="gini = 0.0\nsamples = 10\nvalue = [10, 0]\nclass = bueno", fillcolor="#e58139"] ;
53 -> 63 ;
64 [label="gini = 0.0\nsamples = 1\nvalue = [0, 1]\nclass = malo", fillcolor="#399de5"] ;
50 -> 64 ;
65 [label="Destino <= 5.0\ngini = 0.428\nsamples = 29\nvalue = [9, 20]\nclass = malo", fillcolor="#92c9f1"] ;
49 -> 65 ;
66 [label="Edad <= 43.5\ngini = 0.444\nsamples = 9\nvalue = [6, 3]\nclass = bueno", fillcolor="#f2c09c"] ;
65 -> 66 ;
67 [label="ingresos en dolares <= 1076.684\ngini = 0.48\nsamples = 5\nvalue = [2, 3]\nclass = malo", fillcolor="#bddef6"] ;
66 -> 67 ;
68 [label="gini = 0.0\nsamples = 2\nvalue = [2, 0]\nclass = bueno", fillcolor="#e58139"] ;
67 -> 68 ;
69 [label="gini = 0.0\nsamples = 3\nvalue = [0, 3]\nclass = malo", fillcolor="#399de5"] ;
67 -> 69 ;
70 [label="gini = 0.0\nsamples = 4\nvalue = [4, 0]\nclass = bueno", fillcolor="#e58139"] ;
66 -> 70 ;
71 [label="Destino <= 14.5\ngini = 0.255\nsamples = 20\nvalue = [3, 17]\nclass = malo", fillcolor="#5caeea"] ;
65 -> 71 ;
72 [label="Zona geografica <= 15.5\ngini = 0.111\nsamples = 17\nvalue = [1, 16]\nclass = malo", fillcolor="#45a3e7"] ;
71 -> 72 ;
73 [label="gini = 0.0\nsamples = 13\nvalue = [0, 13]\nclass = malo", fillcolor="#399de5"] ;
72 -> 73 ;
74 [label="Zona geografica <= 17.5\ngini = 0.375\nsamples = 4\nvalue = [1, 3]\nclass = malo", fillcolor="#7bbeee"] ;
72 -> 74 ;
75 [label="gini = 0.0\nsamples = 1\nvalue = [1, 0]\nclass = bueno", fillcolor="#e58139"] ;
74 -> 75 ;
76 [label="gini = 0.0\nsamples = 3\nvalue = [0, 3]\nclass = malo", fillcolor="#399de5"] ;
74 -> 76 ;
77 [label="Perfil <= 2.5\ngini = 0.444\nsamples = 3\nvalue = [2, 1]\nclass = bueno", fillcolor="#f2c09c"] ;
71 -> 77 ;
78 [label="gini = 0.0\nsamples = 2\nvalue = [2, 0]\nclass = bueno", fillcolor="#e58139"] ;
77 -> 78 ;
79 [label="gini = 0.0\nsamples = 1\nvalue = [0, 1]\nclass = malo", fillcolor="#399de5"] ;
77 -> 79 ;
80 [label="Plazo <= 42.0\ngini = 0.314\nsamples = 226\nvalue = [44, 182]\nclass = malo", fillcolor="#69b5eb"] ;
0 -> 80 [labeldistance=2.5, labelangle=-45, headlabel="False"] ;
81 [label="Perfil <= 4.5\ngini = 0.412\nsamples = 148\nvalue = [43.0, 105.0]\nclass = malo", fillcolor="#8ac5f0"] ;
80 -> 81 ;
82 [label="ingresos en dolares <= 769.238\ngini = 0.498\nsamples = 62\nvalue = [29, 33]\nclass = malo", fillcolor="#e7f3fc"] ;
81 -> 82 ;
83 [label="ingresos en dolares <= 358.931\ngini = 0.483\nsamples = 44\nvalue = [26, 18]\nclass = bueno", fillcolor="#f7d8c2"] ;
82 -> 83 ;
84 [label="Edad <= 55.5\ngini = 0.298\nsamples = 11\nvalue = [2, 9]\nclass = malo", fillcolor="#65b3eb"] ;
83 -> 84 ;
85 [label="gini = 0.0\nsamples = 8\nvalue = [0, 8]\nclass = malo", fillcolor="#399de5"] ;
84 -> 85 ;
86 [label="Destino <= 7.0\ngini = 0.444\nsamples = 3\nvalue = [2, 1]\nclass = bueno", fillcolor="#f2c09c"] ;
84 -> 86 ;
87 [label="gini = 0.0\nsamples = 1\nvalue = [0, 1]\nclass = malo", fillcolor="#399de5"] ;
86 -> 87 ;
88 [label="gini = 0.0\nsamples = 2\nvalue = [2, 0]\nclass = bueno", fillcolor="#e58139"] ;
86 -> 88 ;
89 [label="ingresos en dolares <= 615.744\ngini = 0.397\nsamples = 33\nvalue = [24, 9]\nclass = bueno", fillcolor="#efb083"] ;
83 -> 89 ;
90 [label="Zona geografica <= 19.5\ngini = 0.236\nsamples = 22\nvalue = [19, 3]\nclass = bueno", fillcolor="#e99558"] ;
89 -> 90 ;
91 [label="Edad <= 39.0\ngini = 0.172\nsamples = 21\nvalue = [19, 2]\nclass = bueno", fillcolor="#e88e4e"] ;
90 -> 91 ;
92 [label="ingresos en dolares <= 464.812\ngini = 0.444\nsamples = 6\nvalue = [4, 2]\nclass = bueno", fillcolor="#f2c09c"] ;
91 -> 92 ;
93 [label="gini = 0.0\nsamples = 2\nvalue = [0, 2]\nclass = malo", fillcolor="#399de5"] ;
92 -> 93 ;
94 [label="gini = 0.0\nsamples = 4\nvalue = [4, 0]\nclass = bueno", fillcolor="#e58139"] ;
92 -> 94 ;
95 [label="gini = 0.0\nsamples = 15\nvalue = [15, 0]\nclass = bueno", fillcolor="#e58139"] ;
91 -> 95 ;
96 [label="gini = 0.0\nsamples = 1\nvalue = [0, 1]\nclass = malo", fillcolor="#399de5"] ;
90 -> 96 ;
97 [label="ingresos en dolares <= 745.973\ngini = 0.496\nsamples = 11\nvalue = [5, 6]\nclass = malo", fillcolor="#deeffb"] ;
89 -> 97 ;
98 [label="Edad <= 37.0\ngini = 0.444\nsamples = 9\nvalue = [3, 6]\nclass = malo", fillcolor="#9ccef2"] ;
97 -> 98 ;
99 [label="gini = 0.0\nsamples = 1\nvalue = [1, 0]\nclass = bueno", fillcolor="#e58139"] ;
98 -> 99 ;
100 [label="Edad <= 46.5\ngini = 0.375\nsamples = 8\nvalue = [2, 6]\nclass = malo", fillcolor="#7bbeee"] ;
98 -> 100 ;
101 [label="gini = 0.0\nsamples = 4\nvalue = [0, 4]\nclass = malo", fillcolor="#399de5"] ;
100 -> 101 ;
102 [label="Edad <= 47.5\ngini = 0.5\nsamples = 4\nvalue = [2, 2]\nclass = bueno", fillcolor="#ffffff"] ;
100 -> 102 ;
103 [label="gini = 0.0\nsamples = 1\nvalue = [1, 0]\nclass = bueno", fillcolor="#e58139"] ;
102 -> 103 ;
104 [label="ingresos en dolares <= 644.841\ngini = 0.444\nsamples = 3\nvalue = [1, 2]\nclass = malo", fillcolor="#9ccef2"] ;
102 -> 104 ;
105 [label="gini = 0.0\nsamples = 1\nvalue = [1, 0]\nclass = bueno", fillcolor="#e58139"] ;
104 -> 105 ;
106 [label="gini = 0.0\nsamples = 2\nvalue = [0, 2]\nclass = malo", fillcolor="#399de5"] ;
104 -> 106 ;
107 [label="gini = 0.0\nsamples = 2\nvalue = [2, 0]\nclass = bueno", fillcolor="#e58139"] ;
97 -> 107 ;
108 [label="Edad <= 43.5\ngini = 0.278\nsamples = 18\nvalue = [3, 15]\nclass = malo", fillcolor="#61b1ea"] ;
82 -> 108 ;
109 [label="gini = 0.0\nsamples = 6\nvalue = [0, 6]\nclass = malo", fillcolor="#399de5"] ;
108 -> 109 ;
110 [label="Edad <= 47.5\ngini = 0.375\nsamples = 12\nvalue = [3, 9]\nclass = malo", fillcolor="#7bbeee"] ;
108 -> 110 ;
111 [label="ingresos en dolares <= 983.405\ngini = 0.444\nsamples = 3\nvalue = [2, 1]\nclass = bueno", fillcolor="#f2c09c"] ;
110 -> 111 ;
112 [label="gini = 0.0\nsamples = 1\nvalue = [0, 1]\nclass = malo", fillcolor="#399de5"] ;
111 -> 112 ;
113 [label="gini = 0.0\nsamples = 2\nvalue = [2, 0]\nclass = bueno", fillcolor="#e58139"] ;
111 -> 113 ;
114 [label="Destino <= 9.0\ngini = 0.198\nsamples = 9\nvalue = [1, 8]\nclass = malo", fillcolor="#52a9e8"] ;
110 -> 114 ;
115 [label="Destino <= 3.0\ngini = 0.5\nsamples = 2\nvalue = [1, 1]\nclass = bueno", fillcolor="#ffffff"] ;
114 -> 115 ;
116 [label="gini = 0.0\nsamples = 1\nvalue = [0, 1]\nclass = malo", fillcolor="#399de5"] ;
115 -> 116 ;
117 [label="gini = 0.0\nsamples = 1\nvalue = [1, 0]\nclass = bueno", fillcolor="#e58139"] ;
115 -> 117 ;
118 [label="gini = 0.0\nsamples = 7\nvalue = [0, 7]\nclass = malo", fillcolor="#399de5"] ;
114 -> 118 ;
119 [label="Zona geografica <= 5.5\ngini = 0.273\nsamples = 86\nvalue = [14.0, 72.0]\nclass = malo", fillcolor="#5fb0ea"] ;
81 -> 119 ;
120 [label="Plazo <= 30.0\ngini = 0.358\nsamples = 60\nvalue = [14, 46]\nclass = malo", fillcolor="#75bbed"] ;
119 -> 120 ;
121 [label="ingresos en dolares <= 356.318\ngini = 0.444\nsamples = 33\nvalue = [11, 22]\nclass = malo", fillcolor="#9ccef2"] ;
120 -> 121 ;
122 [label="gini = 0.0\nsamples = 7\nvalue = [0, 7]\nclass = malo", fillcolor="#399de5"] ;
121 -> 122 ;
123 [label="ingresos en dolares <= 388.821\ngini = 0.488\nsamples = 26\nvalue = [11.0, 15.0]\nclass = malo", fillcolor="#cae5f8"] ;
121 -> 123 ;
124 [label="gini = 0.0\nsamples = 3\nvalue = [3, 0]\nclass = bueno", fillcolor="#e58139"] ;
123 -> 124 ;
125 [label="Edad <= 37.5\ngini = 0.454\nsamples = 23\nvalue = [8, 15]\nclass = malo", fillcolor="#a3d1f3"] ;
123 -> 125 ;
126 [label="Destino <= 0.5\ngini = 0.198\nsamples = 9\nvalue = [1, 8]\nclass = malo", fillcolor="#52a9e8"] ;
125 -> 126 ;
127 [label="gini = 0.0\nsamples = 1\nvalue = [1, 0]\nclass = bueno", fillcolor="#e58139"] ;
126 -> 127 ;
128 [label="gini = 0.0\nsamples = 8\nvalue = [0, 8]\nclass = malo", fillcolor="#399de5"] ;
126 -> 128 ;
129 [label="Edad <= 51.5\ngini = 0.5\nsamples = 14\nvalue = [7, 7]\nclass = bueno", fillcolor="#ffffff"] ;
125 -> 129 ;
130 [label="Destino <= 0.5\ngini = 0.42\nsamples = 10\nvalue = [7, 3]\nclass = bueno", fillcolor="#f0b78e"] ;
129 -> 130 ;
131 [label="gini = 0.0\nsamples = 3\nvalue = [0, 3]\nclass = malo", fillcolor="#399de5"] ;
130 -> 131 ;
132 [label="gini = 0.0\nsamples = 7\nvalue = [7, 0]\nclass = bueno", fillcolor="#e58139"] ;
130 -> 132 ;
133 [label="gini = 0.0\nsamples = 4\nvalue = [0, 4]\nclass = malo", fillcolor="#399de5"] ;
129 -> 133 ;
134 [label="ingresos en dolares <= 1346.746\ngini = 0.198\nsamples = 27\nvalue = [3, 24]\nclass = malo", fillcolor="#52a9e8"] ;
120 -> 134 ;
135 [label="ingresos en dolares <= 470.459\ngini = 0.142\nsamples = 26\nvalue = [2, 24]\nclass = malo", fillcolor="#49a5e7"] ;
134 -> 135 ;
136 [label="ingresos en dolares <= 403.58\ngini = 0.48\nsamples = 5\nvalue = [2, 3]\nclass = malo", fillcolor="#bddef6"] ;
135 -> 136 ;
137 [label="gini = 0.0\nsamples = 3\nvalue = [0, 3]\nclass = malo", fillcolor="#399de5"] ;
136 -> 137 ;
138 [label="gini = 0.0\nsamples = 2\nvalue = [2, 0]\nclass = bueno", fillcolor="#e58139"] ;
136 -> 138 ;
139 [label="gini = 0.0\nsamples = 21\nvalue = [0, 21]\nclass = malo", fillcolor="#399de5"] ;
135 -> 139 ;
140 [label="gini = 0.0\nsamples = 1\nvalue = [1, 0]\nclass = bueno", fillcolor="#e58139"] ;
134 -> 140 ;
141 [label="gini = 0.0\nsamples = 26\nvalue = [0, 26]\nclass = malo", fillcolor="#399de5"] ;
119 -> 141 ;
142 [label="ingresos en dolares <= 1235.993\ngini = 0.025\nsamples = 78\nvalue = [1, 77]\nclass = malo", fillcolor="#3c9ee5"] ;
80 -> 142 ;
143 [label="gini = 0.0\nsamples = 57\nvalue = [0, 57]\nclass = malo", fillcolor="#399de5"] ;
142 -> 143 ;
144 [label="ingresos en dolares <= 1245.93\ngini = 0.091\nsamples = 21\nvalue = [1, 20]\nclass = malo", fillcolor="#43a2e6"] ;
142 -> 144 ;
145 [label="gini = 0.0\nsamples = 1\nvalue = [1, 0]\nclass = bueno", fillcolor="#e58139"] ;
144 -> 145 ;
146 [label="gini = 0.0\nsamples = 20\nvalue = [0, 20]\nclass = malo", fillcolor="#399de5"] ;
144 -> 146 ;
}